<?xml version="1.0"?>
<opencv_storage>
<cascade>
  <stageType>BOOST</stageType>
  <featureType>LBP</featureType>
  <height>20</height>
  <width>50</width>
  <stageParams>
    <boostType>GAB</boostType>
    <minHitRate>9.9500000476837158e-001</minHitRate>
    <maxFalseAlarm>5.0000000000000000e-001</maxFalseAlarm>
    <weightTrimRate>9.4999999999999996e-001</weightTrimRate>
    <maxDepth>1</maxDepth>
    <maxWeakCount>100</maxWeakCount></stageParams>
  <featureParams>
    <maxCatCount>256</maxCatCount>
    <featSize>1</featSize></featureParams>
  <stageNum>16</stageNum>
  <stages>
    <!-- stage 0 -->
    <_>
      <maxWeakCount>3</maxWeakCount>
      <stageThreshold>-1.1908595561981201e+000</stageThreshold>
      <weakClassifiers>
        <_>
          <internalNodes>
            0 -1 42 318772733 -2158179 487661055 -6876969 -1147884549
            -1147412230 -1684100417 -1074057569</internalNodes>
          <leafValues>
            -8.2848101854324341e-001 3.9210525155067444e-001</leafValues></_>
        <_>
          <internalNodes>
            0 -1 4 -2099201 -2100257 1397332479 2137064117 2079011835
            -6326129 -607833345 2135373695</internalNodes>
          <leafValues>
            -7.7709072828292847e-001 4.1305696964263916e-001</leafValues></_>
        <_>
          <internalNodes>
            0 -1 25 1402845183 1474262014 1427877627 1207670591
            2069868215 2134612219 2115091455 1035927722</internalNodes>
          <leafValues>
            -7.6045447587966919e-001 4.1471213102340698e-001</leafValues></_></weakClassifiers></_>
    <!-- stage 1 -->
    <_>
      <maxWeakCount>5</maxWeakCount>
      <stageThreshold>-1.6672626733779907e+000</stageThreshold>
      <weakClassifiers>
        <_>
          <internalNodes>
            0 -1 9 -33793 -3203617 -170969121 -3113 -8452283 -29658257
            -136348033 -32773</internalNodes>
          <leafValues>
            -8.6190313100814819e-001 1.8731416761875153e-001</leafValues></_>
        <_>
          <internalNodes>
            0 -1 59 333185023 460396511 898702271 1062671103 -1717961025
            721259195 -1108356161 973061119</internalNodes>
          <leafValues>
            -8.2004046440124512e-001 3.4458017349243164e-001</leafValues></_>
        <_>
          <internalNodes>
            0 -1 15 -19400769 -534177 -685868705 -36637197 1958218703
            -69213441 -713023505 1896904450</internalNodes>
          <leafValues>
            -8.2201421260833740e-001 3.3504223823547363e-001</leafValues></_>
        <_>
          <internalNodes>
            0 -1 88 -1895833601 181260799 -2116698625 801958751
            718077119 108967658 -1359212874 -1360269825</internalNodes>
          <leafValues>
            -6.0466265678405762e-001 4.7355860471725464e-001</leafValues></_>
        <_>
          <internalNodes>
            0 -1 53 1070606012 -2214447 -721166851 2144938364
            -1701774359 -1144338213 1555701759 1056453016</internalNodes>
          <leafValues>
            -8.0269944667816162e-001 3.9214050769805908e-001</leafValues></_></weakClassifiers></_>
    <!-- stage 2 -->
    <_>
      <maxWeakCount>5</maxWeakCount>
      <stageThreshold>-1.6819064617156982e+000</stageThreshold>
      <weakClassifiers>
        <_>
          <internalNodes>
            0 -1 13 -2654217 -19965997 -674016801 -3148949 -203480219
            1798925097 -74486917 -68191233</internalNodes>
          <leafValues>
            -8.6932033300399780e-001 -3.9777248166501522e-003</leafValues></_>
        <_>
          <internalNodes>
            0 -1 10 2010993151 -14735873 1887510519 -241192969
            1073364991 -40736078 2006662143 2143238143</internalNodes>
          <leafValues>
            -7.5122880935668945e-001 2.4439890682697296e-001</leafValues></_>
        <_>
          <internalNodes>
            0 -1 65 -42339841 -1084283973 -783965827 -1778517353
            -1404323909 -1172600129 81651172 81635567</internalNodes>
          <leafValues>
            -7.0755398273468018e-001 3.2834991812705994e-001</leafValues></_>
        <_>
          <internalNodes>
            0 -1 33 -271913458 1780479379 -389818290 -53550450
            1313573857 1753443 1343308676 -180889617</internalNodes>
          <leafValues>
            -6.3281178474426270e-001 3.8971853256225586e-001</leafValues></_>
        <_>
          <internalNodes>
            0 -1 46 159662073 2144082940 -1860671525 1071454301
            -1148128358 -70661732 987531775 520903504</internalNodes>
          <leafValues>
            -6.3768118619918823e-001 4.1366580128669739e-001</leafValues></_></weakClassifiers></_>
    <!-- stage 3 -->
    <_>
      <maxWeakCount>4</maxWeakCount>
      <stageThreshold>-1.7838069200515747e+000</stageThreshold>
      <weakClassifiers>
        <_>
          <internalNodes>
            0 -1 13 -34313 -15773213 1531140095 -1161 -69519499
            1594705005 -204773377 -67141633</internalNodes>
          <leafValues>
            -8.6225265264511108e-001 -4.1795667260885239e-002</leafValues></_>
        <_>
          <internalNodes>
            0 -1 89 -1426128929 -1092029606 -1722291269 -1885874737
            231735295 436785319 -1446256737 -1073747969</internalNodes>
          <leafValues>
            -6.4097344875335693e-001 3.4861487150192261e-001</leafValues></_>
        <_>
          <internalNodes>
            0 -1 12 -101976206 -193835502 -783188401 912668208 735965115
            -1451021113 1945369599 1945597299</internalNodes>
          <leafValues>
            -7.0161926746368408e-001 3.4718665480613708e-001</leafValues></_>
        <_>
          <internalNodes>
            0 -1 23 1908275135 2145375071 1137789439 -214630 1552019151
            1943988648 -863252484 2063055032</internalNodes>
          <leafValues>
            -6.2776744365692139e-001 4.1007134318351746e-001</leafValues></_></weakClassifiers></_>
    <!-- stage 4 -->
    <_>
      <maxWeakCount>5</maxWeakCount>
      <stageThreshold>-1.3538075685501099e+000</stageThreshold>
      <weakClassifiers>
        <_>
          <internalNodes>
            0 -1 72 -757072977 -607137709 -1048259309 -682502697
            -389285457 -12599221 -543425025 -855388917</internalNodes>
          <leafValues>
            -7.6314163208007813e-001 2.1574343740940094e-001</leafValues></_>
        <_>
          <internalNodes>
            0 -1 49 926028285 -44035 -46661633 -541252379 -1349270529
            -1081111105 -1682258949 -1627703572</internalNodes>
          <leafValues>
            -6.4130336046218872e-001 3.6800479888916016e-001</leafValues></_>
        <_>
          <internalNodes>
            0 -1 44 -822105566 -363930873 1833832784 1986719834
            -270030588 -882395117 1317794644 -138154605</internalNodes>
          <leafValues>
            -5.5160355567932129e-001 4.4336283206939697e-001</leafValues></_>
        <_>
          <internalNodes>
            0 -1 82 -1837240337 415134654 -1287258921 500935391
            293006015 93227151 2128605183 1073741823</internalNodes>
          <leafValues>
            -6.5311127901077271e-001 3.8070356845855713e-001</leafValues></_>
        <_>
          <internalNodes>
            0 -1 8 -201852585 1930830608 -1066331300 1494379312
            1545548639 1946833216 2047834229 1598513015</internalNodes>
          <leafValues>
            -7.1849918365478516e-001 3.8241562247276306e-001</leafValues></_></weakClassifiers></_>
    <!-- stage 5 -->
    <_>
      <maxWeakCount>7</maxWeakCount>
      <stageThreshold>-1.5992354154586792e+000</stageThreshold>
      <weakClassifiers>
        <_>
          <internalNodes>
            0 -1 51 -67829763 -2108997 -682435585 -203625518 -879757825
            -4515393 -67830789 -1079246376</internalNodes>
          <leafValues>
            -8.0724585056304932e-001 -2.3212628439068794e-002</leafValues></_>
        <_>
          <internalNodes>
            0 -1 0 -1172252816 -139291488 -917187211 -741095887
            1126940771 -67395582 -1923883265 -8653485</internalNodes>
          <leafValues>
            -6.7527788877487183e-001 2.5838279724121094e-001</leafValues></_>
        <_>
          <internalNodes>
            0 -1 85 -52429611 1375689581 -222051682 1788081149
            -666120502 -1964779457 -1998395220 13893243</internalNodes>
          <leafValues>
            -6.4035123586654663e-001 3.6647281050682068e-001</leafValues></_>
        <_>
          <internalNodes>
            0 -1 29 1365695863 2136064995 -783985721 2032163440
            1187200035 -4668914 -69992469 -85952974</internalNodes>
          <leafValues>
            -5.8505278825759888e-001 4.0598672628402710e-001</leafValues></_>
        <_>
          <internalNodes>
            0 -1 17 -50373635 2027356641 -1744805411 -146679589
            -1485948819 438508554 -871678273 -138444835</internalNodes>
          <leafValues>
            -5.4892671108245850e-001 4.2959275841712952e-001</leafValues></_>
        <_>
          <internalNodes>
            0 -1 1 -1686044705 -552083374 1368415961 -675266283
            -881736227 -1742830449 1241841351 2135126807</internalNodes>
          <leafValues>
            -5.7332634925842285e-001 4.2362481355667114e-001</leafValues></_>
        <_>
          <internalNodes>
            0 -1 73 -890771932 -258539466 -645430068 1968260443
            2091246502 -107741074 -1779510919 285442439</internalNodes>
          <leafValues>
            -6.7227423191070557e-001 3.6339381337165833e-001</leafValues></_></weakClassifiers></_>
    <!-- stage 6 -->
    <_>
      <maxWeakCount>7</maxWeakCount>
      <stageThreshold>-2.0058951377868652e+000</stageThreshold>
      <weakClassifiers>
        <_>
          <internalNodes>
            0 -1 32 -140781089 -573320873 1897386455 -71451150
            -677658913 -270565064 -939664389 -67112198</internalNodes>
          <leafValues>
            -7.3437035083770752e-001 2.3396880924701691e-001</leafValues></_>
        <_>
          <internalNodes>
            0 -1 58 -68354563 -172532971 -216541219 -138553127 -3625217
            -35976293 -1681990661 -1074260748</internalNodes>
          <leafValues>
            -5.2746075391769409e-001 4.1614124178886414e-001</leafValues></_>
        <_>
          <internalNodes>
            0 -1 75 -833622262 -398990795 -266143380 1651963607
            1255132070 135351207 1898182649 -793254941</internalNodes>
          <leafValues>
            -5.6225329637527466e-001 3.9256408810615540e-001</leafValues></_>
        <_>
          <internalNodes>
            0 -1 3 -484248585 -22348174 -1025 -282954128 2147186655
            -8687625 2007170559 -569165</internalNodes>
          <leafValues>
            -4.4240117073059082e-001 5.0805705785751343e-001</leafValues></_>
        <_>
          <internalNodes>
            0 -1 50 -460848 1073082212 -778888225 -679672177 -1416840456
            -222832 -896603137 798756024</internalNodes>
          <leafValues>
            -6.2553280591964722e-001 3.5828295350074768e-001</leafValues></_>
        <_>
          <internalNodes>
            0 -1 37 -536875070 -1335937006 -216409780 -91838052
            -375790623 83488 -86037372 -168296585</internalNodes>
          <leafValues>
            -5.3368979692459106e-001 4.5678111910820007e-001</leafValues></_>
        <_>
          <internalNodes>
            0 -1 90 -992001314 453206734 1145151775 138662287 408194236
            -585907832 -1997078356 -1932527109</internalNodes>
          <leafValues>
            -5.1804053783416748e-001 4.3599733710289001e-001</leafValues></_></weakClassifiers></_>
    <!-- stage 7 -->
    <_>
      <maxWeakCount>7</maxWeakCount>
      <stageThreshold>-1.4877458810806274e+000</stageThreshold>
      <weakClassifiers>
        <_>
          <internalNodes>
            0 -1 52 -690160131 -2098219 -317587457 -133121 -5570561
            -5505125 -104018945 -1078457136</internalNodes>
          <leafValues>
            -8.0161231756210327e-001 -3.0927835032343864e-002</leafValues></_>
        <_>
          <internalNodes>
            0 -1 66 -91227393 1019206902 -1325286657 536196567
            -632292193 -1325859604 -338952449 -1174422529</internalNodes>
          <leafValues>
            -5.3786176443099976e-001 3.6667570471763611e-001</leafValues></_>
        <_>
          <internalNodes>
            0 -1 22 319337375 -12724132 -1053208213 -1755458196
            1654173887 -335750996 -19488002 -204950872</internalNodes>
          <leafValues>
            -5.0546908378601074e-001 4.0676313638687134e-001</leafValues></_>
        <_>
          <internalNodes>
            0 -1 62 -1198498308 -60983809 -983337779 -67153483
            1068235774 -87316564 -1156653569 -1124329028</internalNodes>
          <leafValues>
            -5.4747611284255981e-001 3.9349779486656189e-001</leafValues></_>
        <_>
          <internalNodes>
            0 -1 24 -20193022 -1288696186 -2118657666 -179185369
            -1528825202 -1009995776 -1066539861 1225782535</internalNodes>
          <leafValues>
            -5.2875363826751709e-001 4.3118086457252502e-001</leafValues></_>
        <_>
          <internalNodes>
            0 -1 14 1741778935 1944285375 408093776 1241464223
            1932133367 2070875295 1904819186 1941142503</internalNodes>
          <leafValues>
            -8.2454514503479004e-001 2.5993856787681580e-001</leafValues></_>
        <_>
          <internalNodes>
            0 -1 68 -1330907908 2134315009 -2011893355 -745673413
            -603206593 -90471917 -1742083629 -1962942465</internalNodes>
          <leafValues>
            -5.0173348188400269e-001 4.4688040018081665e-001</leafValues></_></weakClassifiers></_>
    <!-- stage 8 -->
    <_>
      <maxWeakCount>7</maxWeakCount>
      <stageThreshold>-1.8650846481323242e+000</stageThreshold>
      <weakClassifiers>
        <_>
          <internalNodes>
            0 -1 76 -16779778 -1201744003 -1694386980 -1680099881
            -120782850 -1197545758 -640218117 -35651841</internalNodes>
          <leafValues>
            -7.7368420362472534e-001 3.6363635212182999e-002</leafValues></_>
        <_>
          <internalNodes>
            0 -1 57 -1751097896 -107006885 -620277281 -6325799
            -1075593749 -112213861 -1077968897 1069223352</internalNodes>
          <leafValues>
            -6.8307572603225708e-001 1.9904719293117523e-001</leafValues></_>
        <_>
          <internalNodes>
            0 -1 77 -285225306 -667226505 -783618292 -388699234
            -1054742923 -2140219341 -243542416 -1871450505</internalNodes>
          <leafValues>
            -6.0829091072082520e-001 3.2058629393577576e-001</leafValues></_>
        <_>
          <internalNodes>
            0 -1 34 -69177346 -4000269 -614736394 -2015076282 624981461
            -539702678 -873989697 2003137876</internalNodes>
          <leafValues>
            -6.9067507982254028e-001 2.9354041814804077e-001</leafValues></_>
        <_>
          <internalNodes>
            0 -1 69 751281055 516066071 -146642817 2141150483
            -1356203793 -1444523749 544510206 148351725</internalNodes>
          <leafValues>
            -6.8288153409957886e-001 3.3693563938140869e-001</leafValues></_>
        <_>
          <internalNodes>
            0 -1 11 -1375536174 -1620910064 579322718 -21917100
            -771235698 -774160313 245874415 1960265059</internalNodes>
          <leafValues>
            -6.3807755708694458e-001 3.3039548993110657e-001</leafValues></_>
        <_>
          <internalNodes>
            0 -1 63 -1945588088 -1770203507 -2146267047 2136255181
            -1441875732 -1076273057 -1339748662 -550983568</internalNodes>
          <leafValues>
            -6.4534997940063477e-001 3.1425011157989502e-001</leafValues></_></weakClassifiers></_>
    <!-- stage 9 -->
    <_>
      <maxWeakCount>6</maxWeakCount>
      <stageThreshold>-1.2819110155105591e+000</stageThreshold>
      <weakClassifiers>
        <_>
          <internalNodes>
            0 -1 35 -77594825 -615267369 -1199439521 -571475617
            -249320785 -892377041 -82064577 -620510193</internalNodes>
          <leafValues>
            -7.6162791252136230e-001 4.6116504818201065e-002</leafValues></_>
        <_>
          <internalNodes>
            0 -1 55 637034492 -571615275 -1849434657 -1113626281
            -1148264481 -68441894 -29558401 798492092</internalNodes>
          <leafValues>
            -7.5163674354553223e-001 1.7529834806919098e-001</leafValues></_>
        <_>
          <internalNodes>
            0 -1 78 -543228434 -121334371 25956110 818555902 -261713035
            -1937084411 -733802076 -1124091905</internalNodes>
          <leafValues>
            -5.3586524724960327e-001 3.7802627682685852e-001</leafValues></_>
        <_>
          <internalNodes>
            0 -1 26 935074968 -42449639 487149791 -36334119 -1147094274
            -374663014 1334368987 1062294762</internalNodes>
          <leafValues>
            -5.7306313514709473e-001 3.3988487720489502e-001</leafValues></_>
        <_>
          <internalNodes>
            0 -1 6 570610674 439405344 -787511337 -2090807216 -787888202
            2053235047 122253937 1631016535</internalNodes>
          <leafValues>
            -7.8043395280838013e-001 2.8159803152084351e-001</leafValues></_>
        <_>
          <internalNodes>
            0 -1 83 -10492154 2047602981 -533018356 1616775454
            1428194103 964035086 2109756415 1374925879</internalNodes>
          <leafValues>
            -6.3305860757827759e-001 3.3073884248733521e-001</leafValues></_></weakClassifiers></_>
    <!-- stage 10 -->
    <_>
      <maxWeakCount>6</maxWeakCount>
      <stageThreshold>-1.7858209609985352e+000</stageThreshold>
      <weakClassifiers>
        <_>
          <internalNodes>
            0 -1 39 -11339809 -69741089 -212804097 -764378989 -376177681
            -548425589 -105644033 -67372033</internalNodes>
          <leafValues>
            -7.1647059917449951e-001 2.2307692468166351e-001</leafValues></_>
        <_>
          <internalNodes>
            0 -1 30 2002113247 1437847902 274846670 -35793186 1930134271
            1703383966 -1478430786 1911403498</internalNodes>
          <leafValues>
            -6.8118345737457275e-001 2.3675566911697388e-001</leafValues></_>
        <_>
          <internalNodes>
            0 -1 79 1749504008 -585940608 -1207899891 1943526403
            364072188 -604252790 -994224913 -690497281</internalNodes>
          <leafValues>
            -5.1202684640884399e-001 3.8274165987968445e-001</leafValues></_>
        <_>
          <internalNodes>
            0 -1 71 -952113366 -668536045 -720382673 2036060631
            1138985967 136780579 1702555825 1370846707</internalNodes>
          <leafValues>
            -5.8034402132034302e-001 3.4461855888366699e-001</leafValues></_>
        <_>
          <internalNodes>
            0 -1 20 -1160765192 -73940016 188305757 2141845680
            -911820389 -399145495 -1444295683 -1420205743</internalNodes>
          <leafValues>
            -6.4598661661148071e-001 3.3950710296630859e-001</leafValues></_>
        <_>
          <internalNodes>
            0 -1 41 -1617954070 -868691813 -268402452 -2013234670
            1065718256 -1874827225 856629380 -168331353</internalNodes>
          <leafValues>
            -5.3007179498672485e-001 4.0196260809898376e-001</leafValues></_></weakClassifiers></_>
    <!-- stage 11 -->
    <_>
      <maxWeakCount>7</maxWeakCount>
      <stageThreshold>-1.4942238330841064e+000</stageThreshold>
      <weakClassifiers>
        <_>
          <internalNodes>
            0 -1 16 -536870913 -615001162 1536252695 -544869932
            564905903 -903723574 819717629 -2561</internalNodes>
          <leafValues>
            -7.2102749347686768e-001 1.6433566808700562e-001</leafValues></_>
        <_>
          <internalNodes>
            0 -1 60 849343967 1886768861 998283962 411502716 -389285443
            -1195802175 -773793063 -1464930563</internalNodes>
          <leafValues>
            -5.9042155742645264e-001 2.8592392802238464e-001</leafValues></_>
        <_>
          <internalNodes>
            0 -1 47 -346052094 -529788902 -477835180 1618375194
            -1226341584 1094770691 1670959697 -144198226</internalNodes>
          <leafValues>
            -5.5615383386611938e-001 3.4015101194381714e-001</leafValues></_>
        <_>
          <internalNodes>
            0 -1 61 816109564 -573572485 2009559133 1509544863 -6751237
            -74129199 -205386753 799016152</internalNodes>
          <leafValues>
            -6.7470020055770874e-001 2.9605039954185486e-001</leafValues></_>
        <_>
          <internalNodes>
            0 -1 64 -313798492 700645376 1359202045 -83113473 -641082207
            -1471018819 282304560 -39059920</internalNodes>
          <leafValues>
            -5.0359100103378296e-001 4.3126559257507324e-001</leafValues></_>
        <_>
          <internalNodes>
            0 -1 7 -552085721 -827930606 25827366 -114171632 939994983
            -808859621 1949385847 1935111511</internalNodes>
          <leafValues>
            -6.2706536054611206e-001 3.2243570685386658e-001</leafValues></_>
        <_>
          <internalNodes>
            0 -1 87 -967052289 145412624 -1004346985 96736577 -711343632
            -769883135 1101468348 -1929393977</internalNodes>
          <leafValues>
            -5.4341584444046021e-001 3.8975262641906738e-001</leafValues></_></weakClassifiers></_>
    <!-- stage 12 -->
    <_>
      <maxWeakCount>7</maxWeakCount>
      <stageThreshold>-1.9890574216842651e+000</stageThreshold>
      <weakClassifiers>
        <_>
          <internalNodes>
            0 -1 38 -173549877 1902092471 1086440735 2136267207
            -394077521 -887439157 -804531745 -85198849</internalNodes>
          <leafValues>
            -7.1132236719131470e-001 3.3184856176376343e-001</leafValues></_>
        <_>
          <internalNodes>
            0 -1 2 -531571745 344023867 1145098079 1301614007
            -1060972149 -2046130109 1526782959 -7373249</internalNodes>
          <leafValues>
            -4.9837034940719604e-001 4.4500094652175903e-001</leafValues></_>
        <_>
          <internalNodes>
            0 -1 81 -831525110 1515561987 538110424 1900184027 75669568
            16647 -502471772 -1312818441</internalNodes>
          <leafValues>
            -5.3650707006454468e-001 4.0454590320587158e-001</leafValues></_>
        <_>
          <internalNodes>
            0 -1 70 -481039834 -667466971 -788442603 -787233005
            -535781205 940282243 562814399 -988297751</internalNodes>
          <leafValues>
            -4.6359688043594360e-001 4.6483945846557617e-001</leafValues></_>
        <_>
          <internalNodes>
            0 -1 40 -769592198 1609728459 -1056322405 -1568667438
            673206497 1860272257 -1694245685 -1411234874</internalNodes>
          <leafValues>
            -5.7126009464263916e-001 3.9016604423522949e-001</leafValues></_>
        <_>
          <internalNodes>
            0 -1 80 309351736 995463617 -1878978117 495935773 8561071
            -1699839709 -2012788216 780992525</internalNodes>
          <leafValues>
            -6.5425676107406616e-001 3.6730930209159851e-001</leafValues></_>
        <_>
          <internalNodes>
            0 -1 84 -661696000 -2109599359 -804163567 -1652326144
            -1568178056 -931004395 1745567752 140235759</internalNodes>
          <leafValues>
            -6.1848086118698120e-001 3.5369277000427246e-001</leafValues></_></weakClassifiers></_>
    <!-- stage 13 -->
    <_>
      <maxWeakCount>8</maxWeakCount>
      <stageThreshold>-1.1587446928024292e+000</stageThreshold>
      <weakClassifiers>
        <_>
          <internalNodes>
            0 -1 28 -934154353 1368011539 16851287 1900377131
            -1207719125 -385736599 -2122304789 -912277313</internalNodes>
          <leafValues>
            -7.3537039756774902e-001 5.1219511032104492e-001</leafValues></_>
        <_>
          <internalNodes>
            0 -1 21 -315624653 791887787 -1175179726 -1381126159
            -1616651089 -1551892487 -1241677991 -868221905</internalNodes>
          <leafValues>
            -4.5515024662017822e-001 6.8382048606872559e-001</leafValues></_>
        <_>
          <internalNodes>
            0 -1 86 -716506590 -784039866 1090539600 8404992 1132708352
            3147809 1619484673 -82851702</internalNodes>
          <leafValues>
            -4.8996570706367493e-001 5.1789802312850952e-001</leafValues></_>
        <_>
          <internalNodes>
            0 -1 36 -1703749043 1720731737 201916797 541098387 802957
            151027855 -2138462007 2055295643</internalNodes>
          <leafValues>
            -5.5303716659545898e-001 5.1125645637512207e-001</leafValues></_>
        <_>
          <internalNodes>
            0 -1 5 -907571778 2012261926 -285219327 1736273888
            1828015858 -16844841 2144753470 -904306921</internalNodes>
          <leafValues>
            -4.8505306243896484e-001 5.2855759859085083e-001</leafValues></_>
        <_>
          <internalNodes>
            0 -1 74 -344986010 1933270639 2138042343 1365442557
            1442760575 758278100 -171969065 975175679</internalNodes>
          <leafValues>
            -4.6086746454238892e-001 6.0784536600112915e-001</leafValues></_>
        <_>
          <internalNodes>
            0 -1 27 152178962 -2063597515 1073938436 -985456549
            1435107369 100762888 -2147466677 -269823359</internalNodes>
          <leafValues>
            -5.5444961786270142e-001 5.3125554323196411e-001</leafValues></_>
        <_>
          <internalNodes>
            0 -1 18 -1039408846 21086608 134290769 1473595497
            -1476276071 -1996488696 25774785 -2090612153</internalNodes>
          <leafValues>
            -5.1061904430389404e-001 5.6621259450912476e-001</leafValues></_></weakClassifiers></_>
    <!-- stage 14 -->
    <_>
      <maxWeakCount>4</maxWeakCount>
      <stageThreshold>-1.3357145786285400e+000</stageThreshold>
      <weakClassifiers>
        <_>
          <internalNodes>
            0 -1 43 -754847663 805371908 1074004056 -805240832
            -2012692471 -2013265920 4341771 -863928178</internalNodes>
          <leafValues>
            -7.9104477167129517e-001 1.</leafValues></_>
        <_>
          <internalNodes>
            0 -1 45 -553980116 933658391 -268505219 863436395 -445121056
            -696551577 -940050458 -759765605</internalNodes>
          <leafValues>
            -6.3910365104675293e-001 7.4806404113769531e-001</leafValues></_>
        <_>
          <internalNodes>
            0 -1 48 -232291113 1539207162 -1828771087 670895854
            -1795332339 -707297419 1702734495 1564245165</internalNodes>
          <leafValues>
            -5.0681108236312866e-001 9.0695518255233765e-001</leafValues></_>
        <_>
          <internalNodes>
            0 -1 54 268699668 -1861976063 19 1359085568 -1073184504
            1073741888 -1879047787 -1962147832</internalNodes>
          <leafValues>
            -7.5474047660827637e-001 6.0124492645263672e-001</leafValues></_></weakClassifiers></_>
    <!-- stage 15 -->
    <_>
      <maxWeakCount>4</maxWeakCount>
      <stageThreshold>-1.4408854246139526e+000</stageThreshold>
      <weakClassifiers>
        <_>
          <internalNodes>
            0 -1 19 4325403 403832832 -2139078655 1224736768 1073774722
            -2146893823 33720322 -1073217014</internalNodes>
          <leafValues>
            -8.7050360441207886e-001 1.</leafValues></_>
        <_>
          <internalNodes>
            0 -1 56 -2129985005 1073741888 19 33554497 16512 33554452
            256 -1979710335</internalNodes>
          <leafValues>
            -7.4197423458099365e-001 1.</leafValues></_>
        <_>
          <internalNodes>
            0 -1 31 33751560 -1073610752 2049 1074003968 8421504 8388608
            12648576 1745551363</internalNodes>
          <leafValues>
            -7.8978317975997925e-001 8.4642612934112549e-001</leafValues></_>
        <_>
          <internalNodes>
            0 -1 67 1690182784 1157169132 -50332447 1845428221
            -855835187 267382783 838771909 -1325937483</internalNodes>
          <leafValues>
            -6.3662981986999512e-001 9.6137559413909912e-001</leafValues></_></weakClassifiers></_></stages>
  <features>
    <_>
      <rect>
        0 2 6 5</rect></_>
    <_>
      <rect>
        0 4 10 5</rect></_>
    <_>
      <rect>
        0 5 9 5</rect></_>
    <_>
      <rect>
        0 8 4 2</rect></_>
    <_>
      <rect>
        0 8 8 4</rect></_>
    <_>
      <rect>
        0 8 11 1</rect></_>
    <_>
      <rect>
        0 9 3 2</rect></_>
    <_>
      <rect>
        0 10 3 2</rect></_>
    <_>
      <rect>
        0 10 3 3</rect></_>
    <_>
      <rect>
        0 14 3 2</rect></_>
    <_>
      <rect>
        0 14 9 2</rect></_>
    <_>
      <rect>
        1 7 3 3</rect></_>
    <_>
      <rect>
        1 7 4 4</rect></_>
    <_>
      <rect>
        1 14 3 2</rect></_>
    <_>
      <rect>
        1 14 5 2</rect></_>
    <_>
      <rect>
        2 9 10 3</rect></_>
    <_>
      <rect>
        2 10 4 2</rect></_>
    <_>
      <rect>
        2 14 2 2</rect></_>
    <_>
      <rect>
        3 7 6 1</rect></_>
    <_>
      <rect>
        4 3 12 3</rect></_>
    <_>
      <rect>
        4 5 6 3</rect></_>
    <_>
      <rect>
        5 3 8 2</rect></_>
    <_>
      <rect>
        6 9 12 2</rect></_>
    <_>
      <rect>
        6 10 12 3</rect></_>
    <_>
      <rect>
        6 11 4 2</rect></_>
    <_>
      <rect>
        6 11 12 3</rect></_>
    <_>
      <rect>
        6 16 11 1</rect></_>
    <_>
      <rect>
        7 0 9 3</rect></_>
    <_>
      <rect>
        7 10 2 2</rect></_>
    <_>
      <rect>
        7 11 8 2</rect></_>
    <_>
      <rect>
        7 11 12 2</rect></_>
    <_>
      <rect>
        7 12 4 1</rect></_>
    <_>
      <rect>
        8 10 10 2</rect></_>
    <_>
      <rect>
        8 13 2 1</rect></_>
    <_>
      <rect>
        8 14 7 1</rect></_>
    <_>
      <rect>
        9 8 2 3</rect></_>
    <_>
      <rect>
        9 12 4 1</rect></_>
    <_>
      <rect>
        9 14 2 1</rect></_>
    <_>
      <rect>
        10 11 4 2</rect></_>
    <_>
      <rect>
        10 12 4 1</rect></_>
    <_>
      <rect>
        10 12 5 1</rect></_>
    <_>
      <rect>
        10 15 2 1</rect></_>
    <_>
      <rect>
        10 17 9 1</rect></_>
    <_>
      <rect>
        11 3 4 2</rect></_>
    <_>
      <rect>
        11 13 1 1</rect></_>
    <_>
      <rect>
        11 13 2 1</rect></_>
    <_>
      <rect>
        12 6 9 2</rect></_>
    <_>
      <rect>
        12 13 1 1</rect></_>
    <_>
      <rect>
        14 2 10 2</rect></_>
    <_>
      <rect>
        14 17 6 1</rect></_>
    <_>
      <rect>
        16 10 3 1</rect></_>
    <_>
      <rect>
        16 13 4 1</rect></_>
    <_>
      <rect>
        17 13 4 1</rect></_>
    <_>
      <rect>
        18 15 3 1</rect></_>
    <_>
      <rect>
        19 12 3 1</rect></_>
    <_>
      <rect>
        20 14 3 1</rect></_>
    <_>
      <rect>
        21 2 7 3</rect></_>
    <_>
      <rect>
        21 16 4 1</rect></_>
    <_>
      <rect>
        22 14 3 1</rect></_>
    <_>
      <rect>
        23 14 9 2</rect></_>
    <_>
      <rect>
        23 15 9 1</rect></_>
    <_>
      <rect>
        24 10 2 1</rect></_>
    <_>
      <rect>
        24 15 3 1</rect></_>
    <_>
      <rect>
        25 5 6 2</rect></_>
    <_>
      <rect>
        25 12 5 1</rect></_>
    <_>
      <rect>
        26 7 8 4</rect></_>
    <_>
      <rect>
        26 13 8 2</rect></_>
    <_>
      <rect>
        27 13 4 1</rect></_>
    <_>
      <rect>
        29 3 7 5</rect></_>
    <_>
      <rect>
        32 8 6 4</rect></_>
    <_>
      <rect>
        33 11 2 2</rect></_>
    <_>
      <rect>
        33 12 3 1</rect></_>
    <_>
      <rect>
        34 8 2 3</rect></_>
    <_>
      <rect>
        34 11 3 2</rect></_>
    <_>
      <rect>
        34 12 3 1</rect></_>
    <_>
      <rect>
        34 13 2 1</rect></_>
    <_>
      <rect>
        34 13 2 2</rect></_>
    <_>
      <rect>
        34 14 2 1</rect></_>
    <_>
      <rect>
        34 15 2 1</rect></_>
    <_>
      <rect>
        35 0 5 5</rect></_>
    <_>
      <rect>
        35 17 5 1</rect></_>
    <_>
      <rect>
        36 13 2 1</rect></_>
    <_>
      <rect>
        36 14 4 2</rect></_>
    <_>
      <rect>
        37 13 2 1</rect></_>
    <_>
      <rect>
        38 9 4 1</rect></_>
    <_>
      <rect>
        38 9 4 2</rect></_>
    <_>
      <rect>
        38 14 1 1</rect></_>
    <_>
      <rect>
        41 11 3 2</rect></_>
    <_>
      <rect>
        41 11 3 3</rect></_>
    <_>
      <rect>
        42 14 2 2</rect></_>
    <_>
      <rect>
        44 7 2 3</rect></_></features></cascade>
</opencv_storage>
